Pheno1
          CP nsplit rel error   xerror      xstd
1 0.36108593      0 1.0000000 1.054415 0.3329930
2 0.07647201      1 0.6389141 1.598636 0.3714656
3 0.01000000      2 0.5624421 1.614439 0.3553439

node), split, n, deviance, yval
      * denotes terminal node

1) root 38 5.06224500 0.3141462
  2) SNP2117=AA,GG 30 1.25008300 0.2008881
    4) SNP1703=AG,GG 23 0.09691396 0.1382199 *
    5) SNP1703=AA 7 0.76604870 0.4067979 *
  3) SNP2117=AG 8 1.98425700 0.7388643 *

  
Pheno2
          CP nsplit rel error   xerror      xstd
1 0.41541301      0 1.0000000 1.060179 0.2029412
2 0.21110737      1 0.5845870 1.363028 0.2656516
3 0.07864794      2 0.3734796 1.450738 0.3077952
4 0.01000000      3 0.2948317 1.457041 0.3070808
 
 
1) root 38 0.221566600 0.2223926
  2) SNP1189=AG,GG 31 0.109392900 0.1990059
    4) SNP2096=AA,GG 21 0.041927020 0.1722011
      8) SNP2622=CT 10 0.003025343 0.1419889 *
      9) SNP2622=CC,TT 11 0.021475920 0.1996667 *
    5) SNP2096=GA 10 0.020691570 0.2552961 *
  3) SNP1189=AA 7 0.020132030 0.3259622 *

 
 
 Pheno3
           CP nsplit rel error   xerror      xstd
1 0.34401924      0 1.0000000 1.058720 0.3206130
2 0.09055598      1 0.6559808 1.455868 0.3561671
3 0.01000000      2 0.5654248 1.511921 0.3666369


1) root 38 7.88773500 0.26831260
  2) SNP2117=AA,GG 30 2.60066900 0.13031870
    4) SNP2619=AA,GG 23 0.02763501 0.04519326 *
    5) SNP2619=GA 7 1.85875300 0.41001640 *
  3) SNP2117=AG 8 2.57353300 0.78579000 *

  
  
 Pheno4
  
 1) root 38 13.1797400 1.779092
  2) SNP2661=AA,AG 22  2.4329010 1.453781
    4) SNP267=TC 11  0.6090567 1.229598 *
    5) SNP267=CC,TT 11  0.7181640 1.677964 *
  3) SNP2661=GG 16  5.2173580 2.226395 *

 
           CP nsplit rel error    xerror      xstd
1 0.41954386      0 1.0000000 1.0769145 0.2147190
2 0.08389242      1 0.5804561 0.6493000 0.1687702
3 0.01000000      2 0.4965637 0.6393917 0.1683141

 
 
 
Pheno5

         CP nsplit rel error   xerror      xstd
1 0.3526019      0 1.0000000 1.067604 0.2000966
2 0.1746674      1 0.6473981 1.804162 0.3721036
3 0.0100000      2 0.4727307 2.215513 0.3946249



 1) root 38 0.78555360 0.3731071
  2) SNP187=CC,CT 25 0.33417140 0.3115412
    4) SNP22=AA,AG 7 0.01560443 0.1927426 *
    5) SNP22=GG 18 0.18135640 0.3577406 *
  3) SNP187=TT 13 0.17439450 0.4915030 *

  
 Pheno 6
           CP nsplit rel error   xerror      xstd
1 0.38443422      0 1.0000000 1.020489 0.3404005
2 0.18428498      1 0.6155658 1.176767 0.3283751
3 0.08196279      2 0.4312808 1.090019 0.2325112
4 0.01000000      3 0.3493180 1.152701 0.2330075

  
 1) root 38 460.78620  8.551217
   2) SNP221=CT,TT 31 181.10970  7.525241
     4) SNP88=AA,AG 10  12.65919  5.126831 *
     5) SNP88=GG 21  83.53453  8.667341
      10) SNP696=AA,GG 11  33.28690  7.388690 *
      11) SNP696=GA 10  12.48029 10.073860 *
   3) SNP221=CC 7 102.53450 13.094820 *

  
 
Pheno7
 1 0.3244326      0 1.0000000 1.037171 0.1787350
2 0.1833082      1 0.6755674 1.280091 0.2719315
3 0.0100000      2 0.4922592 1.435803 0.2861043

 
 
1) root 38 11.1041100 1.669758
  2) SNP187=CC,CT 25  5.3707100 1.447727
    4) SNP88=AA,AG 8  0.3872428 1.031775 *
    5) SNP88=GG 17  2.9479930 1.643468 *
  3) SNP187=TT 13  2.1308670 2.096741 *

 
 
 
 
 Pheno8
 
         CP nsplit rel error   xerror      xstd
1 0.3568901      0 1.0000000 1.077264 0.2523916
2 0.2315188      1 0.6431099 1.563772 0.3455133
3 0.0100000      2 0.4115912 1.500720 0.2958213

 
 
 1) root 38 0.034650860 0.11318360
  2) SNP80=GG 18 0.005699214 0.09416793 *
  3) SNP80=AA,AG 20 0.016585100 0.13029770
    6) SNP2095=AA,GG 8 0.002149882 0.10576860 *
    7) SNP2095=GA 12 0.006412893 0.14665040 *

	
pheno9	
         CP nsplit rel error   xerror      xstd
1 0.4218185      0 1.0000000 1.057782 0.1478006
2 0.1701980      1 0.5781815 1.004055 0.2298217
3 0.0100000      2 0.4079835 1.169303 0.2778569

1) root 38 1.8108590 0.5886398
  2) SNP80=GG 18 0.3866339 0.4391911 *
  3) SNP80=AA,AG 20 0.6603714 0.7231437
    6) SNP2064=AG 7 0.1175043 0.5539721 *
    7) SNP2064=GG 13 0.2346625 0.8142360 *

	
	
	
 
 